0.07297958265359436, 0.1041757071961965, 0.10149324199169232, 0.21973302954416826, 0.10866370603150599, -0.04800432312059895, 0.08641411949129289, -0.04782066635112287, -0.004347775965550032, 0.06775949388676397, -0.01914361933308742, -0.2262259091752718, 0.013358418820987353, -0.025636604859236252, 0.07258601416159077, -0.1428201844419801, -0.06495536118841122, -0.13777465443598474, -0.034549725070016565, 0.026199292514401888, -0.23648724220223097, 0.28693719520519007, -0.23756805805015224, 0.2030140896225868, 0.017258602341137, -0.01586068553176405, 0.1758337094814878, -0.03009966600475054, -0.041555727738696153, -0.06816080049957765, -0.020787633664533994, -0.13658136425595346, -0.11320950766456475
0.08059351897936119, 0.1763509730974807, 0.1370596821367089, -0.1820939484634972, -0.13025841975967514, 0.049131361543079496, -0.08475832940341527, 0.012947033021417073, -0.012284128012784057, -0.11979571680090378, 0.005206424926352182, 0.24570542172298204, -0.03305028954063759, -0.008239343808148891, -0.25758445610529024, -0.1437494593508809, -0.053052390958714495, 0.06932251286431301, -0.0075146768789201715, 0.01629168112320159, -0.04912574329242832, -0.15045266067178537, -0.010179883500969296, 0.027462926280334546, -0.03200706718988484, 0.011183280621784347, 0.00306118304809628, -0.011272189573188603, 0.18313437043975117, 0.001330087492404995, 0.006512062565798581, -0.03908889943839, -0.13547384988202293
0.0012093604643868792, 0.3148591115749382, -0.2332597678033619, -0.007504653598681501, -0.10280190352862904, 0.07715321320059526, -0.12192316217349111, -0.0028091135522917768, -0.13041095341245718, 0.014657749120638509, -0.1510065760862152, -0.014947069383076904, 0.06087235366948228, 0.011002779133153243, 0.0828884999126989, -0.2067123457347765, -0.3176577664105147, -0.022878694406559003, 0.024492547631257616, -0.02671501730860229, 0.01702979146404403, 0.17586627678116165, 0.13637290898831297, 0.06011582199613486, -0.042520987619661624, -0.013802859130458249, 0.0038582353878702175, 0.04910855612141989, 0.04044935176229076, -0.06116553795984415, -0.06588295101414948, -0.005528078672231384, -0.19207309042613263
0.14850815311683518, 0.3552190683824267, -0.07272049410743184, 0.1276029799844777, -0.07545554829433002, 0.035493404466727864, 0.11045705669602883, 0.026917393522836418, 0.044664560808467715, -0.09643690632051563, 0.13071292367511217, -0.01231578752651677, -0.05308814141485198, -0.0051520299218496485, -0.26469118031200456, -0.11047787153842596, 0.23214585439476557, -0.1366848636404361, 0.01488176187994673, -0.04455323797196622, 0.2079372164949471, 0.08969171480619335, -0.058418286809422626, 0.1254774954220514, 0.06596397355245064, 0.0274251349484491, 0.13313260123255244, -0.15059276640288227, 0.4243426790134806, 0.10097327593790673, -0.10113419305691804, -0.19591070651906567, -0.42803550416253544
0.5568957865703082, -0.6121352215783233, -0.020321085109364877, -0.2284269628181326, 0.09082108153686794, 0.6906566403891219, -0.08245527852033713, -0.2962499551237366, 0.4532429879702261, 0.37041162639157715, 0.46797202402603255, 0.5305378841669739, -0.12263766939133858, 0.02261090381786976, -0.1770169260250955, 0.3804058799584456, 0.08966213323858284, -0.05525500394721195, -0.01404191914349762, 0.04620982941394285, -0.44046571265448725, -0.2971479703310999, 0.42879461623328935, 0.5891965580120105, 0.16117382323664467, -0.10493342915156195, 0.5356612751221723, 0.11993051493932583, 0.32543383099099216, 0.8093160353764979, 0.35435502280974673, 0.0015697254730723895, -0.6403558368286202
